digraph Tree {
node [shape=box, style="filled, rounded", color="black", fontname="helvetica"] ;
edge [fontname="helvetica"] ;
0 [label="HOUSE <= 600479.5\ngini = 0.5\nsamples = 17400\nvalue = [8835, 8565]", fillcolor="#fefbf9"] ;
1 [label="OVERAGE <= 97.5\ngini = 0.487\nsamples = 11526\nvalue = [4833, 6693]", fillcolor="#c8e4f8"] ;
0 -> 1 [labeldistance=2.5, labelangle=45, headlabel="True"] ;
2 [label="LEFTOVER <= 24.5\ngini = 0.498\nsamples = 7661\nvalue = [4044, 3617]", fillcolor="#fcf2ea"] ;
1 -> 2 ;
3 [label="LEFTOVER <= 2.5\ngini = 0.481\nsamples = 5103\nvalue = [3052, 2051]", fillcolor="#f6d6be"] ;
2 -> 3 ;
4 [label="gini = 0.499\nsamples = 2540\nvalue = [1227, 1313]", fillcolor="#f2f9fd"] ;
3 -> 4 ;
5 [label="gini = 0.41\nsamples = 2563\nvalue = [1825, 738]", fillcolor="#f0b489"] ;
3 -> 5 ;
6 [label="HANDSET_PRICE <= 809.5\ngini = 0.475\nsamples = 2558\nvalue = [992, 1566]", fillcolor="#b6dbf5"] ;
2 -> 6 ;
7 [label="gini = 0.471\nsamples = 2411\nvalue = [915, 1496]", fillcolor="#b2d9f5"] ;
6 -> 7 ;
8 [label="gini = 0.499\nsamples = 147\nvalue = [77, 70]", fillcolor="#fdf4ed"] ;
6 -> 8 ;
9 [label="REPORTED_SATISFACTION_very_sat <= 0.5\ngini = 0.325\nsamples = 3865\nvalue = [789, 3076]", fillcolor="#6cb6ec"] ;
1 -> 9 ;
10 [label="OVERAGE <= 236.5\ngini = 0.337\nsamples = 2926\nvalue = [628, 2298]", fillcolor="#6fb8ec"] ;
9 -> 10 ;
11 [label="gini = 0.327\nsamples = 2609\nvalue = [538, 2071]", fillcolor="#6cb6ec"] ;
10 -> 11 ;
12 [label="gini = 0.407\nsamples = 317\nvalue = [90, 227]", fillcolor="#88c4ef"] ;
10 -> 12 ;
13 [label="HOUSE <= 590898.0\ngini = 0.284\nsamples = 939\nvalue = [161, 778]", fillcolor="#62b1ea"] ;
9 -> 13 ;
14 [label="gini = 0.279\nsamples = 929\nvalue = [156, 773]", fillcolor="#61b1ea"] ;
13 -> 14 ;
15 [label="gini = 0.5\nsamples = 10\nvalue = [5, 5]", fillcolor="#ffffff"] ;
13 -> 15 ;
16 [label="INCOME <= 100011.5\ngini = 0.434\nsamples = 5874\nvalue = [4002, 1872]", fillcolor="#f1bc96"] ;
0 -> 16 [labeldistance=2.5, labelangle=-45, headlabel="False"] ;
17 [label="AVERAGE_CALL_DURATION <= 8.5\ngini = 0.311\nsamples = 3930\nvalue = [3174, 756]", fillcolor="#eb9f68"] ;
16 -> 17 ;
18 [label="LEFTOVER <= 34.5\ngini = 0.296\nsamples = 2801\nvalue = [2296, 505]", fillcolor="#eb9d65"] ;
17 -> 18 ;
19 [label="gini = 0.273\nsamples = 1707\nvalue = [1428, 279]", fillcolor="#ea9a60"] ;
18 -> 19 ;
20 [label="gini = 0.328\nsamples = 1094\nvalue = [868, 226]", fillcolor="#eca26d"] ;
18 -> 20 ;
21 [label="INCOME <= 95563.5\ngini = 0.346\nsamples = 1129\nvalue = [878, 251]", fillcolor="#eca572"] ;
17 -> 21 ;
22 [label="gini = 0.339\nsamples = 1096\nvalue = [859, 237]", fillcolor="#eca470"] ;
21 -> 22 ;
23 [label="gini = 0.489\nsamples = 33\nvalue = [19, 14]", fillcolor="#f8decb"] ;
21 -> 23 ;
24 [label="OVERAGE <= 144.0\ngini = 0.489\nsamples = 1944\nvalue = [828, 1116]", fillcolor="#cce6f8"] ;
16 -> 24 ;
25 [label="LEFTOVER <= 26.5\ngini = 0.498\nsamples = 1326\nvalue = [707, 619]", fillcolor="#fcefe6"] ;
24 -> 25 ;
26 [label="gini = 0.481\nsamples = 876\nvalue = [524, 352]", fillcolor="#f6d6be"] ;
25 -> 26 ;
27 [label="gini = 0.483\nsamples = 450\nvalue = [183, 267]", fillcolor="#c1e0f7"] ;
25 -> 27 ;
28 [label="OVER_15MINS_CALLS_PER_MONTH <= 14.5\ngini = 0.315\nsamples = 618\nvalue = [121, 497]", fillcolor="#69b5eb"] ;
24 -> 28 ;
29 [label="gini = 0.387\nsamples = 183\nvalue = [48, 135]", fillcolor="#7fc0ee"] ;
28 -> 29 ;
30 [label="gini = 0.279\nsamples = 435\nvalue = [73, 362]", fillcolor="#61b1ea"] ;
28 -> 30 ;
}